{"gradients/linear_layers.0.bias": {"_type": "histogram", "values": [1.0, 0.0, 0.0, 0.0, 0.0, 0.0, 0.0, 0.0, 0.0, 0.0, 0.0, 0.0, 0.0, 0.0, 0.0, 0.0, 0.0, 0.0, 1.0, 0.0, 0.0, 0.0, 1.0, 0.0, 0.0, 0.0, 0.0, 0.0, 0.0, 0.0, 0.0, 2.0, 0.0, 0.0, 0.0, 0.0, 0.0, 0.0, 0.0, 1.0, 0.0, 0.0, 0.0, 1.0, 0.0, 0.0, 0.0, 0.0, 0.0, 0.0, 1.0, 0.0, 0.0, 0.0, 0.0, 0.0, 0.0, 0.0, 0.0, 1.0, 0.0, 0.0, 0.0, 1.0], "bins": [-0.021923797205090523, -0.02131934091448784, -0.020714884623885155, -0.02011042833328247, -0.019505970180034637, -0.018901513889431953, -0.01829705759882927, -0.017692601308226585, -0.0170881450176239, -0.016483688727021217, -0.015879232436418533, -0.015274775214493275, -0.01467031892389059, -0.014065862633287907, -0.013461405411362648, -0.012856949120759964, -0.01225249283015728, -0.011648036539554596, -0.011043580248951912, -0.010439123027026653, -0.00983466673642397, -0.009230210445821285, -0.008625753223896027, -0.008021296933293343, -0.007416840642690659, -0.0068123843520879745, -0.006207927595824003, -0.005603470839560032, -0.004999014548957348, -0.004394558258354664, -0.0037901015020906925, -0.003185644745826721, -0.002581188455224037, -0.0019767319317907095, -0.0013722754083573818, -0.0007678188849240541, -0.00016336236149072647, 0.0004410941619426012, 0.0010455506853759289, 0.0016500074416399002, 0.0022544637322425842, 0.002858920255675912, 0.0034633767791092396, 0.004067833535373211, 0.004672289825975895, 0.005276746116578579, 0.00588120287284255, 0.006485659629106522, 0.007090115919709206, 0.00769457221031189, 0.008299028500914574, 0.008903485722839832, 0.009507942013442516, 0.0101123983040452, 0.010716855525970459, 0.011321311816573143, 0.011925768107175827, 0.012530224397778511, 0.013134680688381195, 0.013739137910306454, 0.014343594200909138, 0.014948050491511822, 0.01555250771343708, 0.016156964004039764, 0.01676142029464245]}, "gradients/linear_layers.0.weight": {"_type": "histogram", "values": [1.0, 0.0, 0.0, 0.0, 0.0, 0.0, 1.0, 1.0, 0.0, 0.0, 1.0, 0.0, 0.0, 1.0, 3.0, 0.0, 3.0, 0.0, 1.0, 1.0, 3.0, 1.0, 5.0, 7.0, 6.0, 10.0, 9.0, 13.0, 8.0, 18.0, 17.0, 29.0, 22.0, 26.0, 39.0, 67.0, 63.0, 138.0, 627.0, 373.0, 120.0, 85.0, 51.0, 44.0, 44.0, 19.0, 18.0, 14.0, 12.0, 10.0, 7.0, 4.0, 11.0, 4.0, 4.0, 6.0, 6.0, 2.0, 1.0, 0.0, 1.0, 2.0, 0.0, 1.0], "bins": [-0.18402422964572906, -0.1792759895324707, -0.17452776432037354, -0.16977952420711517, -0.1650312840938568, -0.16028305888175964, -0.15553481876850128, -0.15078657865524292, -0.14603835344314575, -0.1412901133298874, -0.13654188811779022, -0.13179364800453186, -0.1270454078912735, -0.12229717522859573, -0.11754894256591797, -0.1128007024526596, -0.10805246233940125, -0.10330422967672348, -0.09855598956346512, -0.09380775690078735, -0.08905951678752899, -0.08431128412485123, -0.07956305146217346, -0.0748148113489151, -0.07006657868623734, -0.06531834602355957, -0.06057010591030121, -0.055821873247623444, -0.05107363685965538, -0.04632540047168732, -0.04157716780900955, -0.03682893142104149, -0.03208070248365402, -0.02733246609568596, -0.022584231570363045, -0.01783599704504013, -0.013087760657072067, -0.008339524269104004, -0.0035912897437810898, 0.0011569447815418243, 0.005905181169509888, 0.010653416626155376, 0.015401652082800865, 0.02014988660812378, 0.024898122996091843, 0.029646359384059906, 0.03439459204673767, 0.039142828434705734, 0.0438910648226738, 0.04863930121064186, 0.053387537598609924, 0.05813577026128769, 0.06288400292396545, 0.06763224303722382, 0.07238047569990158, 0.07712870836257935, 0.08187694847583771, 0.08662518113851547, 0.09137342125177383, 0.0961216539144516, 0.10086989402770996, 0.10561812669038773, 0.11036635935306549, 0.11511459946632385, 0.11986283212900162]}, "gradients/cnn_layers.5.weight": {"_type": "histogram", "values": [1.0, 0.0, 0.0, 0.0, 0.0, 0.0, 0.0, 0.0, 0.0, 0.0, 0.0, 0.0, 0.0, 0.0, 0.0, 2.0, 0.0, 0.0, 0.0, 0.0, 0.0, 0.0, 0.0, 0.0, 0.0, 0.0, 0.0, 0.0, 0.0, 0.0, 0.0, 0.0, 0.0, 0.0, 0.0, 0.0, 0.0, 0.0, 0.0, 0.0, 0.0, 0.0, 0.0, 0.0, 0.0, 0.0, 0.0, 0.0, 0.0, 0.0, 0.0, 0.0, 0.0, 0.0, 0.0, 0.0, 0.0, 0.0, 0.0, 0.0, 0.0, 0.0, 0.0, 1.0], "bins": [-0.055306244641542435, -0.05377328768372536, -0.05224033072590828, -0.0507073774933815, -0.04917442053556442, -0.047641463577747345, -0.04610850661993027, -0.04457554966211319, -0.04304259270429611, -0.041509635746479034, -0.03997667878866196, -0.03844372183084488, -0.0369107685983181, -0.03537781164050102, -0.033844854682683945, -0.03231189772486687, -0.03077894262969494, -0.02924598567187786, -0.027713030576705933, -0.026180073618888855, -0.024647116661071777, -0.0231141597032547, -0.02158120460808277, -0.020048247650265694, -0.018515292555093765, -0.016982335597276688, -0.015449379570782185, -0.013916423544287682, -0.012383466586470604, -0.010850510559976101, -0.009317554533481598, -0.00778459757566452, -0.006251640617847443, -0.004718684125691652, -0.0031857278663665056, -0.001652771607041359, -0.00011981511488556862, 0.0014131413772702217, 0.0029460974037647247, 0.004479054361581802, 0.00601201131939888, 0.00754496781155467, 0.00907792430371046, 0.010610880330204964, 0.012143837288022041, 0.013676793314516544, 0.015209749341011047, 0.016742706298828125, 0.018275661394000053, 0.01980861835181713, 0.02134157344698906, 0.022874530404806137, 0.024407487362623215, 0.025940444320440292, 0.02747339941561222, 0.0290063563734293, 0.030539311468601227, 0.032072268426418304, 0.03360522538423538, 0.03513818234205246, 0.03667113557457924, 0.038204092532396317, 0.039737049490213394, 0.04127000644803047, 0.04280296340584755]}, "gradients/cnn_layers.5.bias": {"_type": "histogram", "values": [1.0, 0.0, 0.0, 0.0, 0.0, 0.0, 1.0, 0.0, 0.0, 0.0, 0.0, 0.0, 0.0, 0.0, 0.0, 0.0, 0.0, 0.0, 0.0, 0.0, 0.0, 0.0, 0.0, 1.0, 0.0, 0.0, 0.0, 0.0, 0.0, 0.0, 0.0, 0.0, 0.0, 0.0, 0.0, 0.0, 0.0, 0.0, 0.0, 0.0, 0.0, 0.0, 0.0, 0.0, 0.0, 0.0, 0.0, 0.0, 0.0, 0.0, 0.0, 0.0, 0.0, 0.0, 0.0, 0.0, 0.0, 0.0, 0.0, 0.0, 0.0, 0.0, 0.0, 1.0], "bins": [-0.014144361019134521, -0.01303752139210701, -0.011930680833756924, -0.010823840275406837, -0.009717000648379326, -0.008610161021351814, -0.007503320463001728, -0.006396480370312929, -0.00528964027762413, -0.004182800184935331, -0.0030759600922465324, -0.0019691199995577335, -0.0008622799068689346, 0.0002445601858198643, 0.0013514002785086632, 0.002458240371197462, 0.003565080463886261, 0.00467192055657506, 0.005778760649263859, 0.006885600741952658, 0.007992440834641457, 0.009099280461668968, 0.010206121020019054, 0.01131296157836914, 0.012419801205396652, 0.013526640832424164, 0.01463348139077425, 0.015740321949124336, 0.016847161576151848, 0.01795400120317936, 0.01906084269285202, 0.020167682319879532, 0.021274525672197342, 0.022381365299224854, 0.023488204926252365, 0.024595046415925026, 0.025701886042952538, 0.02680872566998005, 0.02791556715965271, 0.02902240678668022, 0.030129246413707733, 0.031236086040735245, 0.032342925667762756, 0.03344976529479027, 0.03455660492181778, 0.03566344827413559, 0.0367702879011631, 0.03787712752819061, 0.038983967155218124, 0.040090806782245636, 0.04119764640927315, 0.04230448603630066, 0.04341132938861847, 0.04451816901564598, 0.04562500864267349, 0.046731848269701004, 0.047838687896728516, 0.04894552752375603, 0.05005236715078354, 0.05115920677781105, 0.05226604640483856, 0.05337288975715637, 0.054479729384183884, 0.055586569011211395, 0.05669340863823891]}, "gradients/cnn_layers.4.weight": {"_type": "histogram", "values": [2.0, 1.0, 2.0, 0.0, 0.0, 1.0, 2.0, 3.0, 4.0, 1.0, 1.0, 1.0, 3.0, 2.0, 2.0, 2.0, 1.0, 5.0, 2.0, 6.0, 2.0, 3.0, 5.0, 5.0, 5.0, 3.0, 4.0, 3.0, 6.0, 4.0, 6.0, 3.0, 5.0, 1.0, 6.0, 8.0, 1.0, 4.0, 1.0, 5.0, 1.0, 2.0, 1.0, 2.0, 0.0, 2.0, 0.0, 1.0, 2.0, 2.0, 1.0, 2.0, 0.0, 1.0, 0.0, 1.0, 0.0, 2.0, 1.0, 0.0, 0.0, 0.0, 0.0, 2.0], "bins": [-0.13317659497261047, -0.12864726781845093, -0.12411792576313019, -0.11958859860897064, -0.1150592640042305, -0.11052992939949036, -0.10600060224533081, -0.10147126764059067, -0.09694193303585052, -0.09241259843111038, -0.08788326382637024, -0.0833539366722107, -0.07882460206747055, -0.07429526746273041, -0.06976594030857086, -0.06523660570383072, -0.060707271099090576, -0.05617793649435043, -0.05164860561490059, -0.047119274735450745, -0.0425899401307106, -0.03806060552597046, -0.033531274646520615, -0.02900194376707077, -0.024472609162330627, -0.019943276420235634, -0.01541394367814064, -0.010884610936045647, -0.006355278193950653, -0.0018259454518556595, 0.002703387290239334, 0.0072327181696891785, 0.011762067675590515, 0.01629140041768551, 0.020820733159780502, 0.025350065901875496, 0.02987939864397049, 0.03440873324871063, 0.03893806412816048, 0.04346739500761032, 0.047996729612350464, 0.05252606421709061, 0.05705539509654045, 0.061584725975990295, 0.06611406058073044, 0.07064339518547058, 0.07517272233963013, 0.07970205694437027, 0.08423139154911041, 0.08876072615385056, 0.0932900607585907, 0.09781938791275024, 0.10234872251749039, 0.10687805712223053, 0.11140738427639008, 0.11593671888113022, 0.12046605348587036, 0.1249953880906105, 0.12952472269535065, 0.1340540498495102, 0.13858339190483093, 0.14311271905899048, 0.14764204621315002, 0.15217137336730957, 0.1567007154226303]}, "gradients/cnn_layers.4.bias": {"_type": "histogram", "values": [1.0, 0.0, 0.0, 0.0, 0.0, 0.0, 0.0, 0.0, 0.0, 0.0, 0.0, 0.0, 0.0, 0.0, 0.0, 0.0, 0.0, 0.0, 0.0, 0.0, 0.0, 0.0, 0.0, 0.0, 0.0, 0.0, 0.0, 0.0, 0.0, 0.0, 1.0, 0.0, 0.0, 0.0, 0.0, 0.0, 0.0, 0.0, 0.0, 0.0, 0.0, 0.0, 0.0, 0.0, 0.0, 0.0, 0.0, 1.0, 0.0, 0.0, 0.0, 0.0, 0.0, 0.0, 0.0, 0.0, 0.0, 0.0, 0.0, 0.0, 0.0, 0.0, 0.0, 1.0], "bins": [-1.508275090600364e-06, -1.4833881323284004e-06, -1.4585011740564369e-06, -1.4336142157844733e-06, -1.4087272575125098e-06, -1.3838402992405463e-06, -1.3589533409685828e-06, -1.3340663826966193e-06, -1.3091794244246557e-06, -1.2842924661526922e-06, -1.2594055078807287e-06, -1.2345185496087652e-06, -1.2096315913368016e-06, -1.1847446330648381e-06, -1.1598576747928746e-06, -1.134970716520911e-06, -1.1100836445621098e-06, -1.0851966862901463e-06, -1.0603097280181828e-06, -1.0354227697462193e-06, -1.0105358114742558e-06, -9.856488532022922e-07, -9.607618949303287e-07, -9.358748798149463e-07, -9.109879783864017e-07, -8.861010201144381e-07, -8.612140618424746e-07, -8.363271035705111e-07, -8.114401452985476e-07, -7.865531870265841e-07, -7.616662287546205e-07, -7.367792136392382e-07, -7.118922553672746e-07, -6.870052970953111e-07, -6.621183388233476e-07, -6.372313805513841e-07, -6.123444222794205e-07, -5.874574071640382e-07, -5.625704488920746e-07, -5.376834906201111e-07, -5.127965323481476e-07, -4.879095740761841e-07, -4.6302261580422055e-07, -4.3813565753225703e-07, -4.132486708385841e-07, -3.8836171256662055e-07, -3.6347475429465703e-07, -3.385877676009841e-07, -3.1370083775073e-07, -2.8881387947876647e-07, -2.6392692120680294e-07, -2.3903993451313e-07, -2.1415297624116647e-07, -1.8926601796920295e-07, -1.6437905969723943e-07, -1.394920872144212e-07, -1.1460512894245767e-07, -8.971816356506679e-08, -6.483119818767591e-08, -3.994423991571239e-08, -1.5057274538321508e-08, 9.829690839069372e-09, 3.4716649111032893e-08, 5.960362159385113e-08, 8.449057986581465e-08]}, "gradients/cnn_layers.1.weight": {"_type": "histogram", "values": [1.0, 0.0, 0.0, 0.0, 0.0, 0.0, 0.0, 0.0, 0.0, 0.0, 0.0, 0.0, 0.0, 0.0, 0.0, 0.0, 1.0, 0.0, 0.0, 0.0, 0.0, 0.0, 0.0, 0.0, 0.0, 0.0, 0.0, 0.0, 0.0, 0.0, 0.0, 0.0, 0.0, 0.0, 0.0, 0.0, 0.0, 0.0, 0.0, 0.0, 0.0, 0.0, 0.0, 0.0, 0.0, 0.0, 0.0, 1.0, 0.0, 0.0, 0.0, 0.0, 0.0, 0.0, 0.0, 0.0, 0.0, 0.0, 0.0, 0.0, 0.0, 0.0, 0.0, 1.0], "bins": [-0.05487572401762009, -0.053192391991615295, -0.051509059965610504, -0.049825724214315414, -0.04814239218831062, -0.04645906016230583, -0.04477572813630104, -0.04309239238500595, -0.04140906035900116, -0.03972572833299637, -0.03804239630699158, -0.03635906055569649, -0.034675728529691696, -0.032992396503686905, -0.031309064477682114, -0.029625730589032173, -0.027942398563027382, -0.02625906653702259, -0.02457573264837265, -0.02289240062236786, -0.02120906673371792, -0.019525734707713127, -0.017842400819063187, -0.016159068793058395, -0.014475736767053604, -0.012792403809726238, -0.011109070852398872, -0.009425738826394081, -0.007742405403405428, -0.006059072911739349, -0.0043757399544119835, -0.0026924069970846176, -0.0010090731084346771, 0.0006742597324773669, 0.002357592573389411, 0.004040925297886133, 0.005724258255213499, 0.007407590746879578, 0.009090923704206944, 0.01077425666153431, 0.01245759055018425, 0.014140923507511616, 0.01582425646483898, 0.017507588490843773, 0.019190922379493713, 0.020874254405498505, 0.022557586431503296, 0.024240920320153236, 0.025924252346158028, 0.02760758437216282, 0.02929091826081276, 0.03097425028681755, 0.03265758231282234, 0.03434091806411743, 0.03602425009012222, 0.037707582116127014, 0.039390914142131805, 0.0410742461681366, 0.04275757819414139, 0.04444091394543648, 0.04612424597144127, 0.04780757799744606, 0.04949091002345085, 0.05117424577474594, 0.05285757780075073]}, "gradients/cnn_layers.1.bias": {"_type": "histogram", "values": [1.0, 0.0, 0.0, 0.0, 0.0, 0.0, 0.0, 0.0, 0.0, 0.0, 0.0, 0.0, 0.0, 0.0, 0.0, 0.0, 0.0, 0.0, 1.0, 0.0, 0.0, 0.0, 0.0, 0.0, 0.0, 0.0, 0.0, 0.0, 0.0, 0.0, 0.0, 0.0, 0.0, 0.0, 0.0, 0.0, 0.0, 0.0, 0.0, 0.0, 0.0, 0.0, 0.0, 0.0, 0.0, 0.0, 1.0, 0.0, 0.0, 0.0, 0.0, 0.0, 0.0, 0.0, 0.0, 0.0, 0.0, 0.0, 0.0, 0.0, 0.0, 0.0, 0.0, 1.0], "bins": [-0.05234859511256218, -0.0512113943696022, -0.05007419362664223, -0.04893699660897255, -0.04779979586601257, -0.0466625951230526, -0.04552539438009262, -0.04438819736242294, -0.04325099661946297, -0.04211379587650299, -0.040976595133543015, -0.03983939811587334, -0.03870219737291336, -0.037564996629953384, -0.03642779588699341, -0.03529059886932373, -0.034153394401073456, -0.03301619365811348, -0.0318789929151535, -0.030741794034838676, -0.02960459515452385, -0.028467394411563873, -0.027330193668603897, -0.02619299478828907, -0.025055795907974243, -0.023918595165014267, -0.02278139628469944, -0.021644195541739464, -0.020506996661424637, -0.01936979591846466, -0.018232595175504684, -0.017095396295189857, -0.01595819741487503, -0.014820997603237629, -0.013683797791600227, -0.012546597048640251, -0.011409398168325424, -0.010272197425365448, -0.009134997613728046, -0.007997797802090645, -0.006860598921775818, -0.005723399110138416, -0.004586199298501015, -0.003448999021202326, -0.0023117992095649242, -0.0011745993979275227, -3.739912062883377e-05, 0.0010998006910085678, 0.002237001433968544, 0.0033742012456059456, 0.004511401057243347, 0.005648601334542036, 0.006785801146179438, 0.007923001423478127, 0.009060201235115528, 0.01019740104675293, 0.011334600858390331, 0.012471800670027733, 0.013609000481665134, 0.014746200293302536, 0.015883401036262512, 0.01702059991657734, 0.018157800659537315, 0.019294999539852142, 0.02043220028281212]}, "gradients/cnn_layers.0.weight": {"_type": "histogram", "values": [1.0, 0.0, 0.0, 0.0, 0.0, 0.0, 0.0, 0.0, 0.0, 0.0, 0.0, 0.0, 0.0, 1.0, 0.0, 0.0, 0.0, 1.0, 2.0, 1.0, 1.0, 0.0, 0.0, 0.0, 0.0, 0.0, 2.0, 0.0, 0.0, 1.0, 0.0, 1.0, 1.0, 1.0, 0.0, 0.0, 1.0, 3.0, 0.0, 0.0, 1.0, 2.0, 0.0, 4.0, 1.0, 1.0, 1.0, 0.0, 0.0, 0.0, 3.0, 0.0, 0.0, 0.0, 0.0, 2.0, 1.0, 0.0, 1.0, 1.0, 0.0, 0.0, 0.0, 1.0], "bins": [-0.2152663767337799, -0.2097080945968628, -0.20414982736110687, -0.19859154522418976, -0.19303327798843384, -0.18747499585151672, -0.1819167137145996, -0.1763584464788437, -0.17080017924308777, -0.16524189710617065, -0.15968362987041473, -0.15412534773349762, -0.1485670804977417, -0.14300879836082458, -0.13745051622390747, -0.13189224898815155, -0.12633396685123444, -0.12077569216489792, -0.1152174174785614, -0.10965913534164429, -0.10410086810588837, -0.09854258596897125, -0.09298431128263474, -0.08742603659629822, -0.0818677544593811, -0.07630947977304459, -0.07075120508670807, -0.06519292294979095, -0.059634651988744736, -0.05407637730240822, -0.0485180988907814, -0.042959824204444885, -0.03740157186985016, -0.03184329718351364, -0.026285020634531975, -0.020726744085550308, -0.015168469399213791, -0.009610194712877274, -0.004051916301250458, 0.0015063583850860596, 0.00706462562084198, 0.012622901238501072, 0.018181176856160164, 0.02373945340514183, 0.029297728091478348, 0.034856002777814865, 0.04041428118944168, 0.0459725558757782, 0.05153083801269531, 0.05708911269903183, 0.06264738738536835, 0.06820566952228546, 0.07376393675804138, 0.0793222188949585, 0.08488049358129501, 0.09043876826763153, 0.09599704295396805, 0.10155531764030457, 0.10711359232664108, 0.1126718670129776, 0.11823014914989471, 0.12378841638565063, 0.12934669852256775, 0.13490498065948486, 0.14046324789524078]}, "gradients/cnn_layers.0.bias": {"_type": "histogram", "values": [1.0, 0.0, 0.0, 0.0, 0.0, 0.0, 0.0, 0.0, 0.0, 0.0, 0.0, 0.0, 0.0, 0.0, 0.0, 0.0, 1.0, 0.0, 0.0, 0.0, 0.0, 0.0, 0.0, 0.0, 0.0, 0.0, 0.0, 0.0, 0.0, 0.0, 0.0, 0.0, 0.0, 0.0, 0.0, 0.0, 0.0, 0.0, 0.0, 0.0, 0.0, 0.0, 0.0, 0.0, 0.0, 0.0, 0.0, 0.0, 0.0, 0.0, 0.0, 0.0, 0.0, 0.0, 0.0, 1.0, 0.0, 0.0, 0.0, 0.0, 0.0, 0.0, 0.0, 1.0], "bins": [-2.970370951516088e-05, -2.9173013899708167e-05, -2.8642318284255452e-05, -2.8111622668802738e-05, -2.758092523436062e-05, -2.7050229618907906e-05, -2.6519534003455192e-05, -2.5988838388002478e-05, -2.5458142772549763e-05, -2.492744715709705e-05, -2.4396751541644335e-05, -2.386605592619162e-05, -2.3335360310738906e-05, -2.280466287629679e-05, -2.2273967260844074e-05, -2.174327164539136e-05, -2.1212576029938646e-05, -2.068188041448593e-05, -2.0151184799033217e-05, -1.9620489183580503e-05, -1.9089791749138385e-05, -1.855909613368567e-05, -1.8028400518232957e-05, -1.7497704902780242e-05, -1.6967009287327528e-05, -1.6436313671874814e-05, -1.59056180564221e-05, -1.5374922440969385e-05, -1.484422591602197e-05, -1.4313530300569255e-05, -1.3782833775621839e-05, -1.3252138160169125e-05, -1.2721443454211112e-05, -1.2190747838758398e-05, -1.1660051313810982e-05, -1.1129355698358268e-05, -1.0598660082905553e-05, -1.0067964467452839e-05, -9.537268852000125e-06, -9.006572327052709e-06, -8.475876711599994e-06, -7.94518109614728e-06, -7.414485025947215e-06, -6.88378895574715e-06, -6.353093340294436e-06, -5.822397724841721e-06, -5.291701654641656e-06, -4.761005584441591e-06, -4.230309968988877e-06, -3.699614126162487e-06, -3.1689182833360974e-06, -2.6382224405097077e-06, -2.107526597683318e-06, -1.5768307548569283e-06, -1.0461349120305385e-06, -5.154390692041488e-07, 1.525677362224087e-08, 5.459526164486306e-07, 1.0766484592750203e-06, 1.60734430210141e-06, 2.1380401449277997e-06, 2.6687359877541894e-06, 3.199431830580579e-06, 3.730127673406969e-06, 4.2608235162333585e-06]}, "training_loss": 61.63525943085551, "training_acc": 95.35326087261404, "_runtime": 19, "_timestamp": 1641815093, "_step": 8, "Sample images": {"_type": "image-file", "path": "media/images/Sample images_7_ddb95f6f45ee8cee83de.png", "sha256": "ddb95f6f45ee8cee83de4ac15517efc398839654afbe54d1dffd614d68c70773", "size": 366, "format": "png", "width": 28, "height": 28}, "_wandb": {"runtime": 20}}