{"gradients/linear_layers.0.bias": {"_type": "histogram", "values": [1.0, 0.0, 0.0, 0.0, 0.0, 0.0, 0.0, 0.0, 0.0, 0.0, 0.0, 0.0, 0.0, 0.0, 0.0, 0.0, 0.0, 0.0, 0.0, 0.0, 0.0, 1.0, 0.0, 0.0, 0.0, 0.0, 0.0, 0.0, 0.0, 0.0, 0.0, 0.0, 1.0, 0.0, 0.0, 0.0, 0.0, 0.0, 0.0, 0.0, 0.0, 0.0, 0.0, 0.0, 0.0, 0.0, 0.0, 0.0, 0.0, 0.0, 1.0, 0.0, 0.0, 0.0, 1.0, 1.0, 1.0, 1.0, 0.0, 0.0, 1.0, 0.0, 0.0, 1.0], "bins": [-0.042158134281635284, -0.04122694209218025, -0.04029574990272522, -0.03936455771327019, -0.038433365523815155, -0.03750217333436012, -0.03657098114490509, -0.03563978895545006, -0.034708596765995026, -0.03377740457653999, -0.03284621238708496, -0.03191502019762993, -0.030983828008174896, -0.030052635818719864, -0.02912144362926483, -0.02819025330245495, -0.027259062975645065, -0.026327870786190033, -0.025396678596735, -0.024465486407279968, -0.023534294217824936, -0.022603102028369904, -0.02167190983891487, -0.020740719512104988, -0.019809525460004807, -0.018878333270549774, -0.017947141081094742, -0.01701594889163971, -0.016084756702184677, -0.01515356544405222, -0.014222373254597187, -0.01329118199646473, -0.012359989807009697, -0.011428797617554665, -0.010497605428099632, -0.0095664132386446, -0.008635221980512142, -0.00770402979105711, -0.0067728376016020775, -0.0058416458778083324, -0.004910454154014587, -0.003979261964559555, -0.00304807024076581, -0.0021168780513107777, -0.001185686094686389, -0.0002544941380620003, 0.0006766980513930321, 0.0016078897751867771, 0.0025390824303030968, 0.0034702743869274855, 0.004401466343551874, 0.0053326585330069065, 0.0062638502568006516, 0.007195042446255684, 0.008126234635710716, 0.009057426825165749, 0.009988619014620781, 0.010919811204075813, 0.011851003393530846, 0.012782195582985878, 0.013713386841118336, 0.014644579030573368, 0.0155757712200284, 0.016506962478160858, 0.01743815466761589]}, "gradients/linear_layers.0.weight": {"_type": "histogram", "values": [1.0, 0.0, 0.0, 0.0, 0.0, 1.0, 0.0, 0.0, 0.0, 2.0, 2.0, 1.0, 0.0, 1.0, 0.0, 2.0, 1.0, 1.0, 3.0, 4.0, 3.0, 3.0, 1.0, 3.0, 2.0, 5.0, 3.0, 3.0, 7.0, 8.0, 9.0, 7.0, 11.0, 6.0, 14.0, 18.0, 15.0, 9.0, 24.0, 24.0, 37.0, 33.0, 46.0, 58.0, 103.0, 750.0, 205.0, 122.0, 100.0, 74.0, 66.0, 45.0, 38.0, 37.0, 22.0, 12.0, 3.0, 7.0, 4.0, 3.0, 0.0, 0.0, 0.0, 1.0], "bins": [-0.2719918489456177, -0.2659657597541809, -0.25993967056274414, -0.2539135813713074, -0.2478874772787094, -0.24186138808727264, -0.23583529889583588, -0.2298092097043991, -0.22378310561180115, -0.21775701642036438, -0.2117309272289276, -0.20570483803749084, -0.19967873394489288, -0.19365264475345612, -0.18762655556201935, -0.18160046637058258, -0.1755743771791458, -0.16954828798770905, -0.16352219879627228, -0.15749609470367432, -0.15147000551223755, -0.14544391632080078, -0.139417827129364, -0.13339173793792725, -0.12736564874649048, -0.12133955955505371, -0.11531346291303635, -0.10928737372159958, -0.10326127707958221, -0.09723518788814545, -0.09120909869670868, -0.08518300950527191, -0.07915690541267395, -0.07313081622123718, -0.06710471957921982, -0.06107863038778305, -0.055052537471055984, -0.04902644455432892, -0.04300035536289215, -0.036974262446165085, -0.030948162078857422, -0.024922069162130356, -0.01889597810804844, -0.012869887053966522, -0.006843794137239456, -0.0008177012205123901, 0.0052083879709243774, 0.011234480887651443, 0.017260566353797913, 0.02328665927052498, 0.029312750324606895, 0.03533884137868881, 0.04136493429541588, 0.047391027212142944, 0.05341711640357971, 0.05944320932030678, 0.06546930223703384, 0.07149539142847061, 0.07752148807048798, 0.08354757726192474, 0.08957366645336151, 0.09559976309537888, 0.10162585228681564, 0.10765194892883301, 0.11367803812026978]}, "gradients/cnn_layers.5.weight": {"_type": "histogram", "values": [2.0, 0.0, 0.0, 0.0, 0.0, 0.0, 1.0, 0.0, 0.0, 0.0, 0.0, 0.0, 0.0, 0.0, 0.0, 0.0, 0.0, 0.0, 0.0, 0.0, 0.0, 0.0, 0.0, 0.0, 0.0, 0.0, 0.0, 0.0, 0.0, 0.0, 0.0, 0.0, 0.0, 0.0, 0.0, 0.0, 0.0, 0.0, 0.0, 0.0, 0.0, 0.0, 0.0, 0.0, 0.0, 0.0, 0.0, 0.0, 0.0, 0.0, 0.0, 0.0, 0.0, 0.0, 0.0, 0.0, 0.0, 0.0, 0.0, 0.0, 0.0, 0.0, 0.0, 1.0], "bins": [-0.06919264048337936, -0.06649685651063919, -0.06380107253789902, -0.061105288565158844, -0.05840950459241867, -0.0557137206196785, -0.053017932921648026, -0.05032214894890785, -0.04762636497616768, -0.044930581003427505, -0.04223479703068733, -0.03953900933265686, -0.03684322535991669, -0.034147441387176514, -0.03145165741443634, -0.028755873441696167, -0.026060089468955994, -0.02336430549621582, -0.020668521523475647, -0.017972735688090324, -0.015276951715350151, -0.012581167742609978, -0.009885381907224655, -0.007189597934484482, -0.00449381023645401, -0.0017980257980525494, 0.0008977586403489113, 0.0035935435444116592, 0.006289327517151833, 0.008985111489892006, 0.011680897325277328, 0.014376681298017502, 0.017072468996047974, 0.019768252968788147, 0.02246403694152832, 0.025159822776913643, 0.027855606749653816, 0.03055139072239399, 0.03324717655777931, 0.035942960530519485, 0.03863874077796936, 0.041334524750709534, 0.04403030872344971, 0.04672609269618988, 0.049421876668930054, 0.05211766064167023, 0.0548134483397007, 0.05750923231244087, 0.060205020010471344, 0.06290080398321152, 0.06559658795595169, 0.06829237192869186, 0.07098815590143204, 0.07368393987417221, 0.07637973129749298, 0.07907551527023315, 0.08177129924297333, 0.0844670832157135, 0.08716286718845367, 0.08985865116119385, 0.09255443513393402, 0.0952502191066742, 0.09794600307941437, 0.10064178705215454, 0.10333757102489471]}, "gradients/cnn_layers.5.bias": {"_type": "histogram", "values": [1.0, 0.0, 0.0, 0.0, 0.0, 0.0, 0.0, 1.0, 0.0, 0.0, 0.0, 0.0, 0.0, 0.0, 0.0, 0.0, 0.0, 0.0, 0.0, 0.0, 0.0, 1.0, 0.0, 0.0, 0.0, 0.0, 0.0, 0.0, 0.0, 0.0, 0.0, 0.0, 0.0, 0.0, 0.0, 0.0, 0.0, 0.0, 0.0, 0.0, 0.0, 0.0, 0.0, 0.0, 0.0, 0.0, 0.0, 0.0, 0.0, 0.0, 0.0, 0.0, 0.0, 0.0, 0.0, 0.0, 0.0, 0.0, 0.0, 0.0, 0.0, 0.0, 0.0, 1.0], "bins": [-0.047618940472602844, -0.045385610312223434, -0.043152280151844025, -0.040918949991464615, -0.038685619831085205, -0.036452289670705795, -0.034218959510326385, -0.031985633075237274, -0.029752301052212715, -0.027518970891833305, -0.025285640731453896, -0.023052312433719635, -0.020818982273340225, -0.018585652112960815, -0.016352321952581406, -0.014118991792201996, -0.011885661631822586, -0.009652331471443176, -0.007419001776725054, -0.005185672082006931, -0.0029523419216275215, -0.0007190117612481117, 0.0015143174678087234, 0.0037476476281881332, 0.005980975925922394, 0.008214306086301804, 0.010447636246681213, 0.012680965475738049, 0.014914295636117458, 0.017147626727819443, 0.019380955025553703, 0.021614285185933113, 0.023847617208957672, 0.026080947369337082, 0.02831427752971649, 0.0305476076900959, 0.03278093785047531, 0.03501426801085472, 0.03724759817123413, 0.03948092460632324, 0.04171425849199295, 0.04394758865237236, 0.04618091881275177, 0.04841424897313118, 0.05064757913351059, 0.05288090929389, 0.05511423945426941, 0.05734756588935852, 0.05958089604973793, 0.06181422621011734, 0.06404755264520645, 0.06628088653087616, 0.06851421296596527, 0.07074754685163498, 0.07298087328672409, 0.0752142071723938, 0.07744753360748291, 0.07968086004257202, 0.08191419392824173, 0.08414752036333084, 0.08638085424900055, 0.08861418068408966, 0.09084751456975937, 0.09308084100484848, 0.09531417489051819]}, "gradients/cnn_layers.4.weight": {"_type": "histogram", "values": [1.0, 1.0, 3.0, 8.0, 4.0, 2.0, 8.0, 8.0, 10.0, 11.0, 7.0, 20.0, 5.0, 5.0, 7.0, 5.0, 3.0, 3.0, 0.0, 2.0, 4.0, 2.0, 1.0, 1.0, 1.0, 0.0, 1.0, 1.0, 4.0, 2.0, 0.0, 1.0, 1.0, 1.0, 0.0, 1.0, 0.0, 0.0, 1.0, 0.0, 0.0, 0.0, 1.0, 0.0, 1.0, 1.0, 2.0, 0.0, 0.0, 0.0, 1.0, 0.0, 0.0, 2.0, 0.0, 0.0, 0.0, 0.0, 0.0, 0.0, 0.0, 0.0, 0.0, 1.0], "bins": [-0.1320824772119522, -0.12208559364080429, -0.11208871006965637, -0.10209183394908905, -0.09209494292736053, -0.08209806680679321, -0.0721011832356453, -0.062104299664497375, -0.05210741609334946, -0.04211053252220154, -0.03211364895105362, -0.022116769105196, -0.01211988553404808, -0.0021230019629001617, 0.007873877882957458, 0.017870761454105377, 0.027867645025253296, 0.037864528596401215, 0.04786141216754913, 0.057858292013406754, 0.06785517930984497, 0.07785205543041229, 0.08784893900156021, 0.09784582257270813, 0.10784269869327545, 0.11783958226442337, 0.1278364658355713, 0.1378333419561386, 0.14783023297786713, 0.15782710909843445, 0.16782400012016296, 0.17782087624073029, 0.18781778216362, 0.19781465828418732, 0.20781154930591583, 0.21780842542648315, 0.22780531644821167, 0.237802192568779, 0.2477990686893463, 0.25779595971107483, 0.26779285073280334, 0.27778974175453186, 0.287786602973938, 0.2977834939956665, 0.307780385017395, 0.31777727603912354, 0.32777413725852966, 0.3377710282802582, 0.3477678894996643, 0.3577647805213928, 0.36776164174079895, 0.37775853276252747, 0.387755423784256, 0.3977523148059845, 0.4077491760253906, 0.41774606704711914, 0.42774295806884766, 0.43773984909057617, 0.4477367103099823, 0.4577336013317108, 0.46773049235343933, 0.47772738337516785, 0.487724244594574, 0.4977211356163025, 0.507718026638031]}, "gradients/cnn_layers.4.bias": {"_type": "histogram", "values": [1.0, 0.0, 0.0, 0.0, 0.0, 0.0, 0.0, 0.0, 0.0, 0.0, 0.0, 0.0, 0.0, 1.0, 0.0, 0.0, 1.0, 0.0, 0.0, 0.0, 0.0, 0.0, 0.0, 0.0, 0.0, 0.0, 0.0, 0.0, 0.0, 0.0, 0.0, 0.0, 0.0, 0.0, 0.0, 0.0, 0.0, 0.0, 0.0, 0.0, 0.0, 0.0, 0.0, 0.0, 0.0, 0.0, 0.0, 0.0, 0.0, 0.0, 0.0, 0.0, 0.0, 0.0, 0.0, 0.0, 0.0, 0.0, 0.0, 0.0, 0.0, 0.0, 0.0, 1.0], "bins": [-4.4258194975554943e-07, -4.0928799194261956e-07, -3.759940341296897e-07, -3.427000763167598e-07, -3.0940611850382993e-07, -2.7611216069090005e-07, -2.428182028779702e-07, -2.095242450650403e-07, -1.7623028725211043e-07, -1.4293632943918055e-07, -1.0964237162625068e-07, -7.63484138133208e-08, -4.305445600039093e-08, -9.760498187461053e-09, 2.3533459625468822e-08, 5.68274174383987e-08, 9.012137525132857e-08, 1.2341533306425845e-07, 1.5670929087718832e-07, 1.900032486901182e-07, 2.2329720650304807e-07, 2.5659116431597795e-07, 2.898851221289078e-07, 3.231790799418377e-07, 3.564730377547676e-07, 3.8976699556769745e-07, 4.230609533806273e-07, 4.563549111935572e-07, 4.896488690064871e-07, 5.229428552411264e-07, 5.562367846323468e-07, 5.895307140235673e-07, 6.228247002582066e-07, 6.561186864928459e-07, 6.894126158840663e-07, 7.227065452752868e-07, 7.560005315099261e-07, 7.892945177445654e-07, 8.225884471357858e-07, 8.558823765270063e-07, 8.891763627616456e-07, 9.224703489962849e-07, 9.557643352309242e-07, 9.890582077787258e-07, 1.022352194013365e-06, 1.0556461802480044e-06, 1.088940052795806e-06, 1.1222340390304453e-06, 1.1555280252650846e-06, 1.1888220114997239e-06, 1.2221159977343632e-06, 1.2554098702821648e-06, 1.288703856516804e-06, 1.3219978427514434e-06, 1.355291715299245e-06, 1.3885857015338843e-06, 1.4218796877685236e-06, 1.4551736740031629e-06, 1.4884676602378022e-06, 1.5217615327856038e-06, 1.555055519020243e-06, 1.5883495052548824e-06, 1.621643377802684e-06, 1.6549373640373233e-06, 1.6882313502719626e-06]}, "gradients/cnn_layers.1.weight": {"_type": "histogram", "values": [1.0, 0.0, 0.0, 0.0, 0.0, 0.0, 0.0, 0.0, 0.0, 0.0, 0.0, 0.0, 0.0, 0.0, 0.0, 0.0, 0.0, 0.0, 0.0, 0.0, 0.0, 0.0, 0.0, 0.0, 0.0, 0.0, 0.0, 0.0, 1.0, 0.0, 1.0, 0.0, 0.0, 0.0, 0.0, 0.0, 0.0, 0.0, 0.0, 0.0, 0.0, 0.0, 0.0, 0.0, 0.0, 0.0, 0.0, 0.0, 0.0, 0.0, 0.0, 0.0, 0.0, 0.0, 0.0, 0.0, 0.0, 0.0, 0.0, 0.0, 0.0, 0.0, 0.0, 1.0], "bins": [-0.08588237315416336, -0.08325038105249405, -0.08061839640140533, -0.07798640429973602, -0.07535441964864731, -0.072722427546978, -0.07009044289588928, -0.06745845079421997, -0.06482645869255066, -0.062194470316171646, -0.05956248193979263, -0.05693048983812332, -0.05429850518703461, -0.051666513085365295, -0.04903452470898628, -0.04640253633260727, -0.043770551681518555, -0.04113856330513954, -0.03850657492876053, -0.03587458282709122, -0.0332425981760025, -0.03061060793697834, -0.027978617697954178, -0.025346629321575165, -0.022714637219905853, -0.02008264884352684, -0.017450660467147827, -0.014818670228123665, -0.012186681851744652, -0.009554693475365639, -0.0069227032363414764, -0.004290714859962463, -0.0016587227582931519, 0.0009732660837471485, 0.003605254925787449, 0.0062372442334890366, 0.00886923260986805, 0.011501220986247063, 0.014133211225271225, 0.016765199601650238, 0.019397184252738953, 0.022029172629117966, 0.02466116100549698, 0.02729315124452114, 0.029925139620900154, 0.032557129859924316, 0.03518911823630333, 0.03782110661268234, 0.040453098714351654, 0.04308508709073067, 0.04571707546710968, 0.04834906756877899, 0.050981052219867706, 0.05361304432153702, 0.05624503269791603, 0.058877021074295044, 0.06150900945067406, 0.06414099782705307, 0.06677298992872238, 0.0694049745798111, 0.07203696668148041, 0.07466895133256912, 0.07730094343423843, 0.07993292808532715, 0.08256492018699646]}, "gradients/cnn_layers.1.bias": {"_type": "histogram", "values": [1.0, 0.0, 0.0, 0.0, 0.0, 0.0, 0.0, 0.0, 0.0, 0.0, 0.0, 0.0, 0.0, 0.0, 0.0, 0.0, 0.0, 0.0, 1.0, 0.0, 0.0, 0.0, 0.0, 0.0, 0.0, 0.0, 0.0, 0.0, 0.0, 0.0, 0.0, 0.0, 0.0, 0.0, 0.0, 0.0, 0.0, 0.0, 0.0, 0.0, 0.0, 1.0, 0.0, 0.0, 0.0, 0.0, 0.0, 0.0, 0.0, 0.0, 0.0, 0.0, 0.0, 0.0, 0.0, 0.0, 0.0, 0.0, 0.0, 0.0, 0.0, 0.0, 0.0, 1.0], "bins": [-0.06677423417568207, -0.06537400186061859, -0.06397376209497452, -0.06257352977991104, -0.061173297464847565, -0.05977306142449379, -0.05837282910943031, -0.05697259306907654, -0.05557236075401306, -0.054172124713659286, -0.05277189239859581, -0.051371656358242035, -0.04997142404317856, -0.04857118800282478, -0.04717095568776131, -0.04577071964740753, -0.044370487332344055, -0.04297025129199028, -0.041570018976926804, -0.04016978293657303, -0.03876955062150955, -0.03736931458115578, -0.0359690822660923, -0.034568846225738525, -0.03316861018538475, -0.031768374145030975, -0.0303681418299675, -0.028967907652258873, -0.027567673474550247, -0.02616743929684162, -0.024767205119132996, -0.02336696907877922, -0.021966738626360893, -0.020566504448652267, -0.01916627027094364, -0.017766036093235016, -0.01636580191552639, -0.014965567737817764, -0.013565332628786564, -0.012165098451077938, -0.010764865204691887, -0.009364631026983261, -0.007964396849274635, -0.006564162205904722, -0.005163928028196096, -0.0037636938504874706, -0.0023634592071175575, -0.0009632250294089317, 0.0004370100796222687, 0.0018372443737462163, 0.003237478667870164, 0.004637713078409433, 0.006037947256118059, 0.007438181433826685, 0.008838416077196598, 0.010238650254905224, 0.01163888443261385, 0.013039118610322475, 0.014439352788031101, 0.0158395878970623, 0.017239822074770927, 0.018640056252479553, 0.02004029043018818, 0.021440524607896805, 0.02284075878560543]}, "gradients/cnn_layers.0.weight": {"_type": "histogram", "values": [1.0, 0.0, 1.0, 0.0, 0.0, 0.0, 0.0, 0.0, 0.0, 1.0, 1.0, 1.0, 0.0, 2.0, 2.0, 2.0, 2.0, 3.0, 3.0, 0.0, 1.0, 3.0, 1.0, 0.0, 1.0, 0.0, 2.0, 0.0, 0.0, 0.0, 0.0, 0.0, 0.0, 0.0, 0.0, 2.0, 0.0, 0.0, 0.0, 0.0, 1.0, 1.0, 0.0, 0.0, 0.0, 0.0, 0.0, 0.0, 1.0, 0.0, 1.0, 0.0, 0.0, 1.0, 0.0, 0.0, 0.0, 1.0, 0.0, 0.0, 0.0, 0.0, 0.0, 1.0], "bins": [-0.21053168177604675, -0.20200006663799286, -0.19346845149993896, -0.18493685126304626, -0.17640523612499237, -0.16787362098693848, -0.15934202075004578, -0.15081040561199188, -0.142278790473938, -0.1337471753358841, -0.1252155601978302, -0.1166839599609375, -0.1081523448228836, -0.09962072968482971, -0.09108912199735641, -0.08255751430988312, -0.07402589917182922, -0.06549428403377533, -0.05696267634630203, -0.04843106493353844, -0.03989945352077484, -0.031367842108011246, -0.02283623069524765, -0.014304619282484055, -0.005773007869720459, 0.0027586035430431366, 0.011290214955806732, 0.019821826368570328, 0.028353437781333923, 0.03688504919409752, 0.045416660606861115, 0.05394827201962471, 0.06247985363006592, 0.07101146876811981, 0.07954307645559311, 0.0880746841430664, 0.0966062992811203, 0.1051379144191742, 0.11366952210664749, 0.12220112979412079, 0.13073274493217468, 0.13926436007022858, 0.14779597520828247, 0.15632757544517517, 0.16485919058322906, 0.17339080572128296, 0.18192240595817566, 0.19045402109622955, 0.19898563623428345, 0.20751725137233734, 0.21604886651039124, 0.22458046674728394, 0.23311208188533783, 0.24164369702339172, 0.2501752972602844, 0.2587069272994995, 0.2672385275363922, 0.2757701277732849, 0.2843017578125, 0.2928333580493927, 0.3013649582862854, 0.3098965883255005, 0.3184281885623932, 0.3269598186016083, 0.335491418838501]}, "gradients/cnn_layers.0.bias": {"_type": "histogram", "values": [1.0, 0.0, 0.0, 0.0, 0.0, 0.0, 0.0, 0.0, 1.0, 0.0, 0.0, 0.0, 0.0, 0.0, 0.0, 0.0, 0.0, 0.0, 0.0, 0.0, 0.0, 0.0, 0.0, 0.0, 0.0, 0.0, 1.0, 0.0, 0.0, 0.0, 0.0, 0.0, 0.0, 0.0, 0.0, 0.0, 0.0, 0.0, 0.0, 0.0, 0.0, 0.0, 0.0, 0.0, 0.0, 0.0, 0.0, 0.0, 0.0, 0.0, 0.0, 0.0, 0.0, 0.0, 0.0, 0.0, 0.0, 0.0, 0.0, 0.0, 0.0, 0.0, 0.0, 1.0], "bins": [-3.825099702225998e-05, -3.5908316931454465e-05, -3.356563684064895e-05, -3.1222956749843433e-05, -2.888027847802732e-05, -2.6537598387221806e-05, -2.4194920115405694e-05, -2.1852240024600178e-05, -1.9509559933794662e-05, -1.7166879842989147e-05, -1.4824200661678333e-05, -1.2481521480367519e-05, -1.0138841389562003e-05, -7.796161298756488e-06, -5.453482117445674e-06, -3.11080293613486e-06, -7.681228453293443e-07, 1.5745567907288205e-06, 3.917236426786985e-06, 6.25991606284515e-06, 8.602595698903315e-06, 1.094527578970883e-05, 1.3287954971019644e-05, 1.5630634152330458e-05, 1.7973314243135974e-05, 2.031599433394149e-05, 2.2658674424747005e-05, 2.5001352696563117e-05, 2.7344032787368633e-05, 2.968671287817415e-05, 3.202939114999026e-05, 3.4372071240795776e-05, 3.671474405564368e-05, 3.905742414644919e-05, 4.140010423725471e-05, 4.3742784328060225e-05, 4.608546441886574e-05, 4.842814087169245e-05, 5.0770820962497965e-05, 5.311350105330348e-05, 5.5456181144108996e-05, 5.779886123491451e-05, 6.014154132572003e-05, 6.248422141652554e-05, 6.482689786935225e-05, 6.716958159813657e-05, 6.951225805096328e-05, 7.18549417797476e-05, 7.419761823257431e-05, 7.654029468540102e-05, 7.888297841418535e-05, 8.122565486701205e-05, 8.356833859579638e-05, 8.591101504862309e-05, 8.825369877740741e-05, 9.059637523023412e-05, 9.293905168306082e-05, 9.528172813588753e-05, 9.762441186467186e-05, 9.996708831749856e-05, 0.00010230977204628289, 0.0001046524484991096, 0.00010699513222789392, 0.00010933780868072063, 0.00011168049240950495]}, "training_loss": 101.37800573557615, "training_acc": 92.81170077031226, "_runtime": 12, "_timestamp": 1641815015, "_step": 3, "Sample images": {"_type": "image-file", "path": "media/images/Sample images_3_236be795e03a38532d4c.png", "sha256": "236be795e03a38532d4c8dc702a7b7aedb29248a83f6c5f07b3fb9a1345e86f5", "size": 554, "format": "png", "width": 28, "height": 28}, "_wandb": {"runtime": 12}}