{"gradients/linear_layers.0.bias": {"_type": "histogram", "values": [1.0, 0.0, 0.0, 0.0, 0.0, 0.0, 0.0, 0.0, 0.0, 0.0, 0.0, 1.0, 0.0, 0.0, 0.0, 1.0, 1.0, 0.0, 0.0, 0.0, 0.0, 0.0, 0.0, 0.0, 0.0, 0.0, 1.0, 1.0, 0.0, 0.0, 0.0, 0.0, 0.0, 1.0, 0.0, 0.0, 0.0, 1.0, 0.0, 0.0, 0.0, 0.0, 0.0, 0.0, 0.0, 0.0, 1.0, 0.0, 0.0, 0.0, 0.0, 0.0, 0.0, 0.0, 0.0, 0.0, 0.0, 0.0, 0.0, 0.0, 0.0, 0.0, 0.0, 1.0], "bins": [-0.006435450632125139, -0.006205371115356684, -0.005975291598588228, -0.005745211616158485, -0.00551513209939003, -0.005285052582621574, -0.005054973065853119, -0.004824893549084663, -0.004594814032316208, -0.004364734515547752, -0.004134654998779297, -0.0039045752491801977, -0.0036744954995810986, -0.003444415982812643, -0.0032143364660441875, -0.002984256949275732, -0.0027541769668459892, -0.0025240974500775337, -0.0022940177004784346, -0.002063938183709979, -0.0018338585505262017, -0.0016037789173424244, -0.0013736994005739689, -0.0011436197673901916, -0.0009135403670370579, -0.0006834607338532805, -0.0004533811588771641, -0.0002233015839010477, 6.778049282729626e-06, 0.00023685768246650696, 0.00046693719923496246, 0.0006970168324187398, 0.0009270971640944481, 0.0011571767972782254, 0.0013872564304620028, 0.0016173359472304583, 0.0018474155804142356, 0.002077495213598013, 0.0023075747303664684, 0.002537654247134924, 0.0027677342295646667, 0.0029978137463331223, 0.0032278934959322214, 0.003457973012700677, 0.003688052762299776, 0.003918132279068232, 0.004148211795836687, 0.004378291312605143, 0.004608370829373598, 0.004838450346142054, 0.005068529862910509, 0.005298609845340252, 0.005528689362108707, 0.005758768878877163, 0.0059888483956456184, 0.006218927912414074, 0.0064490074291825294, 0.006679086945950985, 0.0069091664627194405, 0.007139245979487896, 0.007369325961917639, 0.007599405478686094, 0.007829485461115837, 0.008059564977884293, 0.008289644494652748]}, "gradients/linear_layers.0.weight": {"_type": "histogram", "values": [1.0, 0.0, 1.0, 2.0, 3.0, 2.0, 4.0, 3.0, 8.0, 5.0, 3.0, 6.0, 5.0, 5.0, 11.0, 9.0, 12.0, 13.0, 22.0, 18.0, 18.0, 29.0, 19.0, 30.0, 37.0, 43.0, 74.0, 105.0, 192.0, 641.0, 171.0, 115.0, 71.0, 38.0, 41.0, 28.0, 29.0, 29.0, 16.0, 13.0, 13.0, 7.0, 7.0, 6.0, 12.0, 6.0, 3.0, 7.0, 4.0, 0.0, 2.0, 2.0, 4.0, 4.0, 3.0, 2.0, 0.0, 1.0, 0.0, 1.0, 0.0, 1.0, 1.0, 2.0], "bins": [-0.03919161111116409, -0.03785398602485657, -0.03651635721325874, -0.03517873212695122, -0.033841103315353394, -0.03250347822904587, -0.031165853142738342, -0.029828226193785667, -0.028490599244832993, -0.027152972295880318, -0.025815345346927643, -0.024477720260620117, -0.023140093311667442, -0.021802466362714767, -0.020464841276407242, -0.019127214327454567, -0.017789587378501892, -0.016451960429549217, -0.015114334411919117, -0.013776708394289017, -0.012439081445336342, -0.011101454496383667, -0.009763828478753567, -0.008426202461123466, -0.007088575512170792, -0.005750949028879404, -0.0044133225455880165, -0.003075696062296629, -0.0017380695790052414, -0.00040044309571385384, 0.0009371833875775337, 0.002274809405207634, 0.0036124400794506073, 0.004950066562741995, 0.006287693046033382, 0.00762531952932477, 0.008962946012616158, 0.010300572961568832, 0.011638198979198933, 0.012975824996829033, 0.014313451945781708, 0.015651078894734383, 0.016988705843687057, 0.018326330929994583, 0.019663957878947258, 0.021001584827899933, 0.02233920991420746, 0.023676836863160133, 0.025014463812112808, 0.026352090761065483, 0.027689717710018158, 0.029027342796325684, 0.03036496974527836, 0.03170259669423103, 0.03304022178053856, 0.03437785059213638, 0.03571547567844391, 0.037053100764751434, 0.03839072957634926, 0.039728354662656784, 0.04106598347425461, 0.042403608560562134, 0.04374123364686966, 0.045078858733177185, 0.04641648754477501]}, "gradients/cnn_layers.5.weight": {"_type": "histogram", "values": [1.0, 0.0, 0.0, 0.0, 0.0, 0.0, 0.0, 0.0, 0.0, 0.0, 1.0, 0.0, 0.0, 0.0, 0.0, 0.0, 0.0, 0.0, 0.0, 0.0, 0.0, 0.0, 0.0, 0.0, 1.0, 0.0, 0.0, 0.0, 0.0, 0.0, 0.0, 0.0, 0.0, 0.0, 0.0, 0.0, 0.0, 0.0, 0.0, 0.0, 0.0, 0.0, 0.0, 0.0, 0.0, 0.0, 0.0, 0.0, 0.0, 0.0, 0.0, 0.0, 0.0, 0.0, 0.0, 0.0, 0.0, 0.0, 0.0, 0.0, 0.0, 0.0, 0.0, 1.0], "bins": [-0.037331677973270416, -0.03692179545760155, -0.03651191666722298, -0.03610203415155411, -0.03569215536117554, -0.03528227284550667, -0.0348723940551281, -0.03446251153945923, -0.03405263274908066, -0.03364275023341179, -0.03323287144303322, -0.03282298892736435, -0.03241311013698578, -0.03200322762131691, -0.03159334883093834, -0.03118346631526947, -0.03077358566224575, -0.03036370500922203, -0.02995382435619831, -0.02954394370317459, -0.02913406305015087, -0.02872418239712715, -0.02831430174410343, -0.027904421091079712, -0.027494538575410843, -0.027084657922387123, -0.026674777269363403, -0.026264896616339684, -0.025855015963315964, -0.025445135310292244, -0.025035254657268524, -0.024625372141599655, -0.024215493351221085, -0.023805612698197365, -0.023395732045173645, -0.022985851392149925, -0.022575970739126205, -0.022166090086102486, -0.021756209433078766, -0.021346326917409897, -0.020936446264386177, -0.020526565611362457, -0.020116684958338737, -0.019706804305315018, -0.019296923652291298, -0.018887042999267578, -0.01847716234624386, -0.01806728169322014, -0.01765739917755127, -0.01724751852452755, -0.01683763787150383, -0.01642775721848011, -0.01601787656545639, -0.01560799591243267, -0.015198114328086376, -0.014788233675062656, -0.014378353953361511, -0.013968473300337791, -0.013558592647314072, -0.013148711994290352, -0.012738831341266632, -0.012328950688242912, -0.011919069103896618, -0.011509188450872898, -0.011099307797849178]}, "gradients/cnn_layers.5.bias": {"_type": "histogram", "values": [1.0, 0.0, 0.0, 0.0, 0.0, 0.0, 1.0, 0.0, 0.0, 0.0, 0.0, 0.0, 0.0, 0.0, 0.0, 0.0, 0.0, 0.0, 0.0, 0.0, 0.0, 0.0, 0.0, 0.0, 0.0, 0.0, 0.0, 0.0, 0.0, 0.0, 0.0, 0.0, 0.0, 0.0, 1.0, 0.0, 0.0, 0.0, 0.0, 0.0, 0.0, 0.0, 0.0, 0.0, 0.0, 0.0, 0.0, 0.0, 0.0, 0.0, 0.0, 0.0, 0.0, 0.0, 0.0, 0.0, 0.0, 0.0, 0.0, 0.0, 0.0, 0.0, 0.0, 1.0], "bins": [-0.020019158720970154, -0.019807934761047363, -0.019596712663769722, -0.01938548870384693, -0.01917426660656929, -0.0189630426466465, -0.01875181868672371, -0.018540596589446068, -0.018329372629523277, -0.018118148669600487, -0.017906926572322845, -0.017695702612400055, -0.017484480515122414, -0.017273256555199623, -0.017062032595276833, -0.01685081049799919, -0.0166395865380764, -0.01642836257815361, -0.01621714048087597, -0.01600591652095318, -0.015794694423675537, -0.015583470463752747, -0.01537224743515253, -0.015161024406552315, -0.014949801377952099, -0.014738578349351883, -0.014527355320751667, -0.014316131360828876, -0.01410490833222866, -0.013893685303628445, -0.013682462275028229, -0.013471238315105438, -0.013260015286505222, -0.013048792257905006, -0.01283756922930479, -0.012626345269382, -0.012415122240781784, -0.012203899212181568, -0.011992676183581352, -0.011781452223658562, -0.011570229195058346, -0.01135900616645813, -0.011147783137857914, -0.010936559177935123, -0.010725336149334908, -0.010514113120734692, -0.010302890092134476, -0.010091666132211685, -0.009880444034934044, -0.009669221006333828, -0.009457997977733612, -0.009246774017810822, -0.009035550989210606, -0.00882432796061039, -0.008613104932010174, -0.008401881903409958, -0.008190657943487167, -0.007979434914886951, -0.007768211420625448, -0.007556988392025232, -0.007345764897763729, -0.007134541869163513, -0.006923318840563297, -0.006712095346301794, -0.006500871852040291]}, "gradients/cnn_layers.4.weight": {"_type": "histogram", "values": [2.0, 0.0, 1.0, 0.0, 0.0, 2.0, 0.0, 1.0, 1.0, 1.0, 4.0, 1.0, 4.0, 5.0, 1.0, 7.0, 2.0, 3.0, 7.0, 5.0, 6.0, 5.0, 5.0, 4.0, 5.0, 5.0, 5.0, 7.0, 2.0, 4.0, 3.0, 2.0, 1.0, 1.0, 2.0, 1.0, 5.0, 6.0, 4.0, 6.0, 1.0, 4.0, 3.0, 2.0, 0.0, 2.0, 1.0, 2.0, 1.0, 0.0, 0.0, 0.0, 0.0, 0.0, 0.0, 0.0, 0.0, 0.0, 1.0, 0.0, 0.0, 0.0, 0.0, 1.0], "bins": [-0.035514090210199356, -0.03388594090938568, -0.032257791608572006, -0.03062964230775833, -0.029001493006944656, -0.02737334370613098, -0.025745194405317307, -0.02411704510450363, -0.022488895803689957, -0.020860746502876282, -0.019232597202062607, -0.017604447901248932, -0.015976298600435257, -0.014348149299621582, -0.012719999998807907, -0.011091850697994232, -0.009463701397180557, -0.007835552096366882, -0.006207402795553207, -0.0045792534947395325, -0.0029511041939258575, -0.0013229548931121826, 0.0003051944077014923, 0.0019333437085151672, 0.003561493009328842, 0.005189642310142517, 0.006817791610956192, 0.008445940911769867, 0.010074090212583542, 0.011702239513397217, 0.013330388814210892, 0.014958538115024567, 0.01658669114112854, 0.018214840441942215, 0.01984298974275589, 0.021471139043569565, 0.02309928834438324, 0.024727437645196915, 0.02635558694601059, 0.027983736246824265, 0.02961188554763794, 0.031240034848451614, 0.03286818414926529, 0.034496333450078964, 0.03612448275089264, 0.037752632051706314, 0.03938078135251999, 0.041008930653333664, 0.04263707995414734, 0.044265229254961014, 0.04589337855577469, 0.047521527856588364, 0.04914967715740204, 0.050777826458215714, 0.05240597575902939, 0.05403412505984306, 0.05566227436065674, 0.05729042366147041, 0.05891857296228409, 0.06054672226309776, 0.06217487156391144, 0.06380301713943481, 0.06543117016553879, 0.06705932319164276, 0.06868746876716614]}, "gradients/cnn_layers.4.bias": {"_type": "histogram", "values": [1.0, 0.0, 0.0, 0.0, 0.0, 0.0, 0.0, 0.0, 0.0, 0.0, 0.0, 0.0, 0.0, 0.0, 0.0, 0.0, 0.0, 0.0, 0.0, 0.0, 0.0, 0.0, 0.0, 0.0, 0.0, 0.0, 0.0, 0.0, 0.0, 0.0, 0.0, 0.0, 0.0, 0.0, 0.0, 0.0, 0.0, 0.0, 0.0, 0.0, 0.0, 0.0, 0.0, 0.0, 0.0, 1.0, 0.0, 0.0, 0.0, 0.0, 0.0, 0.0, 0.0, 0.0, 0.0, 0.0, 0.0, 0.0, 0.0, 1.0, 0.0, 0.0, 0.0, 1.0], "bins": [-1.1011234164470807e-06, -1.0795429261634126e-06, -1.0579623221929069e-06, -1.0363818319092388e-06, -1.014801227938733e-06, -9.93220737655065e-07, -9.71640247371397e-07, -9.500596434008912e-07, -9.284790962738043e-07, -9.068985491467174e-07, -8.853180020196305e-07, -8.637374548925436e-07, -8.421569646088756e-07, -8.205764174817887e-07, -7.989958703547018e-07, -7.774153232276149e-07, -7.55834776100528e-07, -7.342542289734411e-07, -7.126736818463542e-07, -6.910931915626861e-07, -6.695126444355992e-07, -6.479320973085123e-07, -6.263515501814254e-07, -6.047710030543385e-07, -5.831905127706705e-07, -5.616099656435836e-07, -5.400294185164967e-07, -5.184489282328286e-07, -4.968683811057417e-07, -4.752878339786548e-07, -4.537072868515679e-07, -4.32126739724481e-07, -4.105461925973941e-07, -3.889656454703072e-07, -3.6738512676492974e-07, -3.4580457963784283e-07, -3.2422403251075593e-07, -3.0264351380537846e-07, -2.8106296667829156e-07, -2.5948241955120466e-07, -2.3790187242411776e-07, -2.1632133950788557e-07, -1.9474079238079867e-07, -1.7316025946456648e-07, -1.5157971233747958e-07, -1.299991794212474e-07, -1.084186465050152e-07, -8.68380993779283e-08, -6.525758067255083e-08, -4.3677040650891286e-08, -2.209650418194542e-08, -5.159677129995544e-10, 2.106457230865999e-08, 4.2645112330319535e-08, 6.422564524655172e-08, 8.580619237363862e-08, 1.0738672528987081e-07, 1.28967258206103e-07, 1.505478053331899e-07, 1.7212833824942209e-07, 1.9370887116565427e-07, 2.1528941829274117e-07, 2.3686995120897336e-07, 2.5845048412520555e-07, 2.8003103125229245e-07]}, "gradients/cnn_layers.1.weight": {"_type": "histogram", "values": [1.0, 0.0, 0.0, 0.0, 0.0, 0.0, 0.0, 0.0, 0.0, 0.0, 0.0, 0.0, 0.0, 0.0, 0.0, 0.0, 0.0, 0.0, 0.0, 0.0, 0.0, 0.0, 0.0, 0.0, 0.0, 0.0, 0.0, 0.0, 0.0, 0.0, 0.0, 0.0, 0.0, 0.0, 0.0, 0.0, 0.0, 0.0, 0.0, 0.0, 0.0, 0.0, 0.0, 0.0, 1.0, 0.0, 0.0, 1.0, 0.0, 0.0, 0.0, 0.0, 0.0, 0.0, 0.0, 0.0, 0.0, 0.0, 0.0, 0.0, 0.0, 0.0, 0.0, 1.0], "bins": [-0.015507277101278305, -0.015102813951671124, -0.014698350802063942, -0.014293888583779335, -0.013889425434172153, -0.013484962284564972, -0.01308049913495779, -0.012676035985350609, -0.012271573767066002, -0.01186711061745882, -0.011462647467851639, -0.011058185249567032, -0.01065372209995985, -0.010249258950352669, -0.009844795800745487, -0.009440332651138306, -0.009035869501531124, -0.008631406351923943, -0.008226943202316761, -0.00782248005270958, -0.0074180178344249725, -0.007013554684817791, -0.0066090915352106094, -0.006204628385603428, -0.005800165235996246, -0.005395702086389065, -0.0049912394024431705, -0.004586776252835989, -0.004182313568890095, -0.003777850419282913, -0.0033733872696757317, -0.0029689243528991938, -0.002564461901783943, -0.0021599989850074053, -0.0017555359518155456, -0.0013510729186236858, -0.0009466100018471479, -0.00054214708507061, -0.0001376839354634285, 0.0002667789813131094, 0.00067124143242836, 0.0010757043492048979, 0.0014801673823967576, 0.0018846304155886173, 0.0022890933323651552, 0.002693556249141693, 0.0030980193987488747, 0.0035024823155254126, 0.003906945697963238, 0.004311408847570419, 0.0047158715315163136, 0.005120334681123495, 0.005524797365069389, 0.005929260514676571, 0.0063337236642837524, 0.006738186813890934, 0.007142649497836828, 0.00754711264744401, 0.007951575331389904, 0.008356038480997086, 0.008760501630604267, 0.009164964780211449, 0.009569426998496056, 0.009973890148103237, 0.010378353297710419]}, "gradients/cnn_layers.1.bias": {"_type": "histogram", "values": [1.0, 0.0, 0.0, 0.0, 0.0, 0.0, 0.0, 0.0, 0.0, 0.0, 0.0, 0.0, 0.0, 0.0, 0.0, 0.0, 0.0, 0.0, 0.0, 0.0, 0.0, 0.0, 0.0, 1.0, 0.0, 0.0, 0.0, 0.0, 0.0, 0.0, 0.0, 0.0, 0.0, 0.0, 0.0, 0.0, 0.0, 0.0, 0.0, 0.0, 0.0, 0.0, 1.0, 0.0, 0.0, 0.0, 0.0, 0.0, 0.0, 0.0, 0.0, 0.0, 0.0, 0.0, 0.0, 0.0, 0.0, 0.0, 0.0, 0.0, 0.0, 0.0, 0.0, 1.0], "bins": [-0.011581912636756897, -0.011188999749720097, -0.01079608779400587, -0.01040317490696907, -0.01001026201993227, -0.00961734913289547, -0.009224437177181244, -0.008831524290144444, -0.008438611403107643, -0.008045698516070843, -0.00765278609469533, -0.007259873673319817, -0.006866960786283016, -0.006474048364907503, -0.00608113594353199, -0.00568822305649519, -0.005295311100780964, -0.004902398679405451, -0.0045094857923686504, -0.004116573370993137, -0.0037236607167869806, -0.003330748062580824, -0.002937835641205311, -0.002544922986999154, -0.0021520107984542847, -0.001759098144248128, -0.001366185606457293, -0.0009732730686664581, -0.0005803604144603014, -0.00018744776025414467, 0.0002054646611213684, 0.0005983773153275251, 0.0009912895038723946, 0.0013842021580785513, 0.0017771146958693862, 0.002170027233660221, 0.002562939887866378, 0.0029558525420725346, 0.0033487649634480476, 0.0037416776176542044, 0.004134590737521648, 0.0045275031588971615, 0.004920416045933962, 0.005313328467309475, 0.005706241354346275, 0.006099153775721788, 0.0064920661970973015, 0.006884979084134102, 0.007277891039848328, 0.007670803461223841, 0.008063715882599354, 0.008456628769636154, 0.008849541656672955, 0.009242454543709755, 0.00963536649942398, 0.010028279386460781, 0.010421192273497581, 0.010814105160534382, 0.011207017116248608, 0.011599930003285408, 0.011992842890322208, 0.012385755777359009, 0.012778667733073235, 0.013171580620110035, 0.01356449257582426]}, "gradients/cnn_layers.0.weight": {"_type": "histogram", "values": [1.0, 0.0, 0.0, 0.0, 0.0, 0.0, 0.0, 1.0, 0.0, 0.0, 1.0, 0.0, 0.0, 0.0, 2.0, 2.0, 0.0, 1.0, 2.0, 0.0, 0.0, 0.0, 0.0, 1.0, 0.0, 1.0, 0.0, 0.0, 1.0, 1.0, 0.0, 1.0, 1.0, 0.0, 1.0, 2.0, 3.0, 0.0, 3.0, 0.0, 1.0, 0.0, 1.0, 1.0, 1.0, 0.0, 0.0, 0.0, 1.0, 0.0, 0.0, 0.0, 1.0, 1.0, 1.0, 0.0, 0.0, 1.0, 1.0, 0.0, 0.0, 0.0, 0.0, 1.0], "bins": [-0.04061092808842659, -0.03916153311729431, -0.03771214187145233, -0.03626274690032005, -0.034813351929187775, -0.033363960683345795, -0.031914565712213516, -0.030465170741081238, -0.02901577763259411, -0.02756638452410698, -0.0261169895529747, -0.02466759644448757, -0.023218203336000443, -0.021768808364868164, -0.020319415256381035, -0.018870022147893906, -0.017420627176761627, -0.015971234068274498, -0.01452183909714222, -0.01307244598865509, -0.011623051948845387, -0.010173657909035683, -0.008724264800548553, -0.00727487076073885, -0.005825478583574295, -0.004376084543764591, -0.0029266909696161747, -0.0014772973954677582, -2.7903355658054352e-05, 0.0014214906841516495, 0.0028708837926387787, 0.0043202778324484825, 0.005769673734903336, 0.007219067774713039, 0.008668461814522743, 0.010117854923009872, 0.011567248962819576, 0.01301664300262928, 0.01446603611111641, 0.015915431082248688, 0.017364826053380966, 0.018814219161868095, 0.020263614133000374, 0.021713007241487503, 0.02316240221261978, 0.02461179532110691, 0.02606118842959404, 0.02751058340072632, 0.0289599746465683, 0.030409367755055428, 0.03185876086354256, 0.033308155834674835, 0.034757550805807114, 0.03620694577693939, 0.03765633702278137, 0.03910573199391365, 0.04055512696504593, 0.04200452193617821, 0.04345391318202019, 0.044903308153152466, 0.046352703124284744, 0.04780209809541702, 0.049251489341259, 0.05070088431239128, 0.05215027555823326]}, "gradients/cnn_layers.0.bias": {"_type": "histogram", "values": [1.0, 0.0, 0.0, 0.0, 0.0, 0.0, 0.0, 0.0, 0.0, 0.0, 0.0, 0.0, 0.0, 0.0, 0.0, 0.0, 0.0, 0.0, 0.0, 0.0, 0.0, 0.0, 0.0, 0.0, 0.0, 0.0, 0.0, 1.0, 0.0, 0.0, 0.0, 0.0, 0.0, 0.0, 0.0, 0.0, 0.0, 0.0, 0.0, 0.0, 0.0, 0.0, 0.0, 0.0, 0.0, 0.0, 0.0, 0.0, 0.0, 0.0, 0.0, 0.0, 0.0, 0.0, 0.0, 0.0, 0.0, 0.0, 0.0, 0.0, 1.0, 0.0, 0.0, 1.0], "bins": [-2.4406446755165234e-05, -2.3595597667736e-05, -2.2784746761317365e-05, -2.1973897673888132e-05, -2.1163046767469496e-05, -2.0352197680040263e-05, -1.954134859261103e-05, -1.8730497686192393e-05, -1.791964859876316e-05, -1.7108799511333928e-05, -1.629794860491529e-05, -1.5487099517486058e-05, -1.4676249520562124e-05, -1.3865399523638189e-05, -1.3054550436208956e-05, -1.2243700439285021e-05, -1.1432850442361087e-05, -1.0622000445437152e-05, -9.811150448513217e-06, -9.000301361083984e-06, -8.18945136416005e-06, -7.378601367236115e-06, -6.567751825059531e-06, -5.7569022828829475e-06, -4.946052285959013e-06, -4.135202289035078e-06, -3.3243527468584944e-06, -2.513502977308235e-06, -1.702653207757976e-06, -8.918032108340412e-07, -8.095366865745746e-08, 7.298958735191263e-07, 1.540745870443061e-06, 2.3515956399933202e-06, 3.1624454095435794e-06, 3.973294951720163e-06, 4.784144948644098e-06, 5.5949949455680326e-06, 6.405844487744616e-06, 7.2166940299212e-06, 8.027544026845135e-06, 8.83839402376907e-06, 9.649244020693004e-06, 1.0460093108122237e-05, 1.1270943105046172e-05, 1.2081793101970106e-05, 1.289264218939934e-05, 1.3703492186323274e-05, 1.4514342183247209e-05, 1.532519127067644e-05, 1.6136042177095078e-05, 1.694689126452431e-05, 1.7757742170942947e-05, 1.856859125837218e-05, 1.9379440345801413e-05, 2.019029125222005e-05, 2.1001140339649282e-05, 2.1811989427078515e-05, 2.2622840333497152e-05, 2.3433689420926385e-05, 2.4244538508355618e-05, 2.5055389414774254e-05, 2.5866238502203487e-05, 2.667708758963272e-05, 2.7487938496051356e-05]}, "training_loss": 97.81302699446678, "training_acc": 92.8644501339749, "_runtime": 13, "_timestamp": 1641820643, "_step": 4, "Sample images": {"_type": "image-file", "path": "media/images/Sample images_3_61f5961ddfe7c89b51ac.png", "sha256": "61f5961ddfe7c89b51ac66833cba727a5744c65eef28f8ec1943c5337be69ea0", "size": 347, "format": "png", "width": 28, "height": 28}, "_wandb": {"runtime": 12}}